34 64
34 -0.107215166 -0.08992735 0.13841307 0.17260249 0.10746229 -0.09193739 0.22660457 -0.21682702 -0.28260538 0.05074014 -0.08735719 0.07567528 0.039748907 -0.32103628 -0.22040343 -0.21787943 0.034481842 -0.05304706 -0.09478357 0.19888401 0.17757496 0.012652179 0.1938265 -0.05907321 -0.12847506 -0.17130654 -0.044114575 0.075820774 -0.015846744 0.27308223 -0.013280168 0.13034509 -0.050261952 0.116951995 -0.2632557 -0.03028729 0.33067957 0.23275131 0.10721491 -0.09518545 -0.24102426 0.18397625 0.1215664 0.10401024 -0.09932039 0.07832147 -0.08951088 -0.32307285 -0.3154857 0.10463826 0.12795691 0.27924055 0.09042473 -0.09436258 -0.19153242 -0.12015121 -0.21389574 -0.045608945 -0.15073948 0.09496687 0.12424436 -0.2192279 -0.1883582 0.15668154
1 0.0052500363 -0.31255367 0.004058758 0.04446112 0.032545794 -0.32681128 0.09704462 0.15537994 0.16543868 0.08067887 0.0058519975 0.22617029 0.092088565 -0.28073984 0.11565044 -0.31950417 -0.027596127 -0.27614027 0.01591484 0.04411767 0.29354575 -0.023806985 0.0849852 -0.027289735 0.19374573 0.05085949 0.010502921 0.11844405 0.12428774 0.12572883 -0.16254596 0.018496014 -0.09111251 0.08439823 -0.13704427 -0.26586062 0.19751948 0.097047366 0.10151175 -0.11651209 -0.06937097 -0.14326552 0.05186984 0.28546712 -0.22484289 0.1407228 -0.08640233 -0.153583 -0.013457904 0.15586178 -0.21251075 0.13643728 0.072345 0.106563665 -0.2279101 -0.012931708 -0.039564513 0.1334218 -0.037567303 -0.14577836 0.2920468 -0.42244953 0.0042191437 0.19926713
33 -0.11046298 -0.12676923 0.13952972 0.19782892 0.09237583 -0.0827259 0.23715326 -0.22649848 -0.23698173 0.052339125 -0.07038069 0.06834787 0.011302405 -0.27254912 -0.19333172 -0.16804314 0.016304074 -0.047522284 -0.124540284 0.18830018 0.21496212 -0.0061696903 0.21726555 -0.04063812 -0.13329712 -0.1817451 -0.068164855 0.053277448 -0.063241914 0.2618774 -0.018828746 0.15031086 -0.030267138 0.08871126 -0.26403502 -0.033544704 0.29811025 0.24360253 0.05346806 -0.06474288 -0.28729868 0.22162242 0.09966557 0.055312335 -0.05749395 0.13435242 -0.02633204 -0.3158432 -0.32933515 0.09716618 0.12518118 0.33538198 0.098126754 -0.1647799 -0.17445274 -0.12881416 -0.2578895 -0.07689924 -0.08129271 0.1148733 0.13201898 -0.20255546 -0.17714916 0.17789713
3 -0.06068166 -0.0876514 0.14833517 0.04807548 0.10021306 -0.24077779 0.074668914 -0.04566607 -0.21288322 0.07462519 -0.006439944 0.10214488 0.10296961 -0.3683263 -0.08967412 -0.30178383 0.010862879 -0.095003225 0.0071630115 0.11611365 0.20851418 0.079112954 0.076062456 -0.020968948 -0.047797475 0.0393822 0.018414056 0.23116255 0.17043245 0.22239855 -0.14138669 0.056713928 -0.14650823 0.2300688 -0.22531305 -0.16503285 0.3064218 0.14090148 0.18319844 -0.05308762 -0.06776737 -0.03617881 0.06509315 0.22245084 -0.13607877 0.09068867 -0.19094008 -0.24296258 -0.26905918 0.07269234 0.007385168 0.074688755 0.09628178 0.09011963 -0.3081924 -0.020799942 -0.07922953 0.052673746 -0.23528667 0.012445785 0.16373572 -0.3215786 -0.14525707 0.13298447
2 -0.022969315 -0.19892402 0.117041685 -0.030178843 0.07755727 -0.36302763 0.021330332 0.16333117 -0.03198613 0.08935799 0.010929627 0.20790552 0.13903901 -0.36067206 0.060430802 -0.40130964 -0.036947083 -0.15519927 0.083808914 0.026755232 0.2605811 0.07051632 0.05400233 -0.02840271 0.08772398 0.16007821 0.0802433 0.29049167 0.26899996 0.13877553 -0.20365036 0.010439526 -0.24069378 0.2769941 -0.13728143 -0.24379478 0.2559906 0.040833406 0.21987472 -0.016027993 0.010257166 -0.17155778 0.08579724 0.34344965 -0.17203386 0.06881332 -0.17697717 -0.21129788 -0.13109808 0.099389434 -0.15355459 -0.045467548 0.14611445 0.24234538 -0.38825747 0.0021779898 -0.011564754 0.15961988 -0.19279857 -0.0931034 0.22072338 -0.39399818 -0.112406135 0.087991744
4 -0.0059232586 -0.16788943 0.09734214 0.03282195 0.08076646 -0.3367388 0.036444407 0.12699747 -0.02179884 0.069066055 0.029031813 0.17572479 0.14369799 -0.3405102 0.03562337 -0.3348369 -0.023687229 -0.16950782 0.052210335 0.06272346 0.25690702 0.033494115 0.05336564 -0.037502013 0.08474538 0.11221617 0.027017115 0.22247954 0.2035948 0.15584059 -0.18200353 0.027583666 -0.17559946 0.18719421 -0.15035425 -0.23437707 0.2721866 0.07825612 0.1585238 -0.04532131 -0.025572669 -0.15032583 0.074311435 0.30255887 -0.15518168 0.083239436 -0.16219889 -0.2120242 -0.15511231 0.099138334 -0.12568194 0.031228462 0.11469814 0.15490207 -0.3091939 0.0004823022 -0.025594061 0.1165988 -0.13981438 -0.105818585 0.25338072 -0.38459396 -0.08322752 0.11867929
32 -0.014321244 -0.12159732 0.062735125 0.15541421 0.068247266 -0.09292813 0.1651478 -0.28396547 -0.27906206 0.08255297 -0.044198688 -0.007049918 0.04717165 -0.25348616 -0.16878432 -0.12229666 0.07016799 -0.12840101 -0.115427785 0.24049023 0.25595966 0.042817518 0.15442978 -0.010562717 -0.16936627 -0.16188663 -0.115165025 0.053324543 -0.04830274 0.3165996 -0.023153514 0.07712096 0.096516185 0.04695927 -0.38245484 -0.089186765 0.27563736 0.2695591 0.04619252 -0.21444687 -0.1636482 0.15807056 -0.045866184 -0.0077645537 -0.14716493 0.2646937 -0.19418603 -0.16255063 -0.2798224 0.05685944 0.10773833 0.32480025 0.01081962 -0.1504424 -0.1401421 -0.0033760574 -0.10197711 -0.049444765 -0.17706484 0.11889542 0.14770785 -0.28285313 -0.03833136 0.26352498
24 -0.015689224 -0.0757937 0.14056236 0.21694481 0.0834454 -0.03204928 0.20578603 -0.42747107 -0.42039573 0.092103824 -0.07099973 -0.103950515 0.060199108 -0.24978034 -0.2810329 -0.06419429 0.098739594 -0.0840273 -0.1590862 0.28782797 0.28477365 0.04786529 0.2289606 0.022588704 -0.28196663 -0.22041494 -0.16052695 0.027549112 -0.1435751 0.40104264 0.002827226 0.13525838 0.12877673 -0.0060866373 -0.44625857 -0.04205083 0.31266785 0.3100004 0.012651067 -0.24873133 -0.24472657 0.27534384 -0.071386375 -0.08548424 -0.08061609 0.33154747 -0.21476094 -0.17262413 -0.38961074 0.0546917 0.22165716 0.43549827 -0.013317885 -0.24465735 -0.09866623 -0.0076566404 -0.16147898 -0.1132751 -0.19737887 0.21288279 0.11812345 -0.23762901 -0.056693003 0.26657
14 -0.030615244 -0.22821826 0.100946575 0.041696586 0.06143086 -0.2836984 0.09373448 0.07680148 -0.002994968 0.080777146 -0.018128157 0.1788306 0.08787794 -0.2998057 0.030407708 -0.30388567 -0.0261888 -0.16284448 0.012480266 0.05042972 0.2704427 0.019938383 0.10532574 -0.013536961 0.08314006 0.0650397 0.03373765 0.18747404 0.12624054 0.15100785 -0.15732007 0.05416674 -0.16085051 0.161447 -0.13306396 -0.2075981 0.22882408 0.09402375 0.12615263 -0.039003354 -0.10535221 -0.07838879 0.07541956 0.26771823 -0.12913647 0.11500338 -0.073324226 -0.21542051 -0.14102286 0.12650493 -0.11707766 0.1031659 0.10902212 0.095603384 -0.27514893 -0.04189051 -0.10532202 0.0914741 -0.086292796 -0.07301877 0.22425671 -0.3449418 -0.08804512 0.13616218
9 -0.07651361 -0.106511526 0.0957528 0.10834714 0.088871635 -0.16813713 0.13850161 -0.085724734 -0.13855061 0.05046464 -0.0066673504 0.1397613 0.060699403 -0.32202935 -0.098051295 -0.24661088 -0.015046397 -0.09869019 -0.04541119 0.13356183 0.16977347 0.034729052 0.1108922 -0.04997246 -0.043423794 -0.048936415 -0.027404997 0.10032185 0.070556894 0.2120343 -0.07798938 0.09775823 -0.08829339 0.13707696 -0.19252916 -0.12033549 0.29792136 0.16862084 0.10658049 -0.07218583 -0.14475042 0.039126236 0.09698585 0.16855714 -0.1469123 0.071727455 -0.11905553 -0.25638983 -0.23990878 0.075722046 0.010344403 0.18216452 0.073093876 -0.009666401 -0.19076113 -0.07244963 -0.12757564 0.008594069 -0.14679952 -0.0077920286 0.17003407 -0.27838412 -0.13906088 0.14786138
7 0.11177373 -0.54784334 -0.20982769 0.17349504 -0.06329379 -0.352351 0.2271105 0.30114213 0.568 0.07130044 0.10065834 0.3995206 0.028676866 -0.25285146 0.35657704 -0.34767416 -0.113388814 -0.49262616 -0.018671306 0.03659062 0.37262705 -0.20437683 0.08721943 -0.06251399 0.48617253 -0.08233981 -0.07229935 -0.1478875 0.031262368 0.13156532 -0.108739346 -0.020262763 -0.019793047 -0.08292497 -0.08149645 -0.36264333 0.16217844 0.1685489 -0.06775733 -0.18193969 -0.12197472 -0.13973223 0.06770328 0.28434512 -0.39285985 0.26498184 0.08232533 -0.19229628 0.2296611 0.2473177 -0.43043223 0.32423386 0.08657521 -0.0052569234 -0.08854544 -0.08718749 -0.03372543 0.07013073 0.2628579 -0.3352277 0.45770103 -0.47263998 0.16729414 0.34246224
6 0.1416125 -0.52116346 -0.25655776 0.19410373 -0.06768916 -0.33711794 0.2238826 0.2880464 0.58031917 0.06699303 0.15692788 0.4110607 0.024994193 -0.25356254 0.37267998 -0.34270272 -0.1314792 -0.52425516 -0.0075316764 0.06329445 0.34053454 -0.20546253 0.026228035 -0.08820901 0.4896973 -0.09894924 -0.085448384 -0.20002612 0.04645315 0.15864493 -0.10368409 -0.060656197 0.031462874 -0.081296526 -0.1008289 -0.3775835 0.17693822 0.19921093 -0.08852769 -0.23872685 -0.06736514 -0.14612275 0.05336362 0.24219935 -0.46201634 0.26553613 0.025562588 -0.17929322 0.26117972 0.22664587 -0.44151145 0.32873207 0.076651454 -0.033768885 -0.027010981 -0.07424163 0.025380075 0.052265767 0.24825872 -0.39068946 0.47398582 -0.4881494 0.2087747 0.34244782
28 -0.015573701 -0.091516845 0.0923484 0.19922201 0.075336695 -0.038805626 0.18209118 -0.38811216 -0.37227908 0.081127204 -0.043152645 -0.06128036 0.04973814 -0.22807686 -0.23677014 -0.07733749 0.09259039 -0.09713807 -0.1261381 0.29586887 0.24964584 0.033844784 0.19156756 -0.017068623 -0.25885168 -0.21562186 -0.15884331 0.01318554 -0.098762564 0.3796723 0.02781643 0.11008613 0.1542593 0.023951108 -0.43909958 -0.051772553 0.2941024 0.30174616 0.02473477 -0.2437907 -0.18687153 0.2280203 -0.071640395 -0.084962934 -0.13227233 0.3058379 -0.24800438 -0.1646777 -0.33564284 0.044614024 0.15392283 0.3919424 0.010528702 -0.23189302 -0.097859725 0.006385605 -0.1094033 -0.10054659 -0.20884453 0.18431772 0.12082319 -0.2571717 -0.03398108 0.26611
30 -0.05898324 -0.13028757 0.09956529 0.21499008 0.06784653 -0.027197076 0.26807964 -0.35064346 -0.327934 0.07302304 -0.113007195 0.00073829864 0.009215482 -0.264164 -0.2574852 -0.13482648 0.06285236 -0.08397362 -0.17179157 0.26374263 0.24502699 0.007738815 0.23821138 -0.028574599 -0.19195344 -0.24406669 -0.10042213 0.022847453 -0.1311079 0.32470068 0.0015865528 0.119736634 0.07102711 0.02775401 -0.36643118 -0.015399084 0.29979914 0.3045595 0.04394457 -0.19336464 -0.28672603 0.265934 0.032617018 -0.0018170006 -0.08146829 0.21446083 -0.096251965 -0.27561387 -0.34328938 0.09054069 0.17740794 0.4119263 0.053199064 -0.23666432 -0.11223403 -0.085401595 -0.24318694 -0.095561095 -0.12082833 0.16248667 0.12322724 -0.22862127 -0.10354626 0.23711328
31 -0.08562354 -0.08055617 0.1725072 0.09770677 0.09787479 -0.17173952 0.13186565 -0.12187761 -0.24601334 0.06263064 -0.036505457 0.09318963 0.0737072 -0.32705104 -0.14476366 -0.2547126 -0.005102761 -0.03752998 -0.03246609 0.12918878 0.19756694 0.047172196 0.12956224 -0.015356709 -0.09211669 -0.027641723 0.008081855 0.18163899 0.079491146 0.21849239 -0.10089369 0.107859306 -0.14176019 0.19403403 -0.20179959 -0.08879699 0.28798532 0.15650488 0.14457978 -0.035716176 -0.1624493 0.076414935 0.0929965 0.15840258 -0.06537647 0.07886194 -0.108142056 -0.2908827 -0.3033974 0.07649513 0.057821795 0.15864806 0.11044471 -0.0045554745 -0.25485927 -0.07739564 -0.16438344 -0.008740252 -0.1738753 0.052937545 0.13429257 -0.23870304 -0.19130287 0.104875214
8 -0.047282856 -0.19307148 0.15125558 -0.002091881 0.075032234 -0.33721763 0.049063407 0.12908924 -0.04819078 0.08794214 -0.013865755 0.18535374 0.12244323 -0.3483837 0.030659018 -0.3666099 -0.033642713 -0.12674417 0.06591455 0.034818087 0.2636469 0.05195015 0.07829995 -0.022847533 0.06946753 0.14941876 0.07598841 0.28640527 0.21652949 0.13749501 -0.20634079 0.04694225 -0.23528387 0.2521704 -0.13004862 -0.22476332 0.26509094 0.05372274 0.19931531 0.015212634 -0.06038876 -0.13240498 0.09044541 0.33270606 -0.10748441 0.074464805 -0.12089681 -0.23556466 -0.17948832 0.11038897 -0.124668494 -0.0026811056 0.15439658 0.18933512 -0.37715346 -0.028591957 -0.08803667 0.119616814 -0.15994503 -0.07730893 0.21591802 -0.36567476 -0.14010178 0.09153587
5 0.10177776 -0.49197242 -0.18821326 0.13813166 -0.034360502 -0.35205448 0.18737201 0.26431337 0.47948107 0.06797764 0.11763915 0.36721736 0.02223719 -0.23869364 0.32259968 -0.3502809 -0.11050306 -0.44827986 -0.008025615 0.053275842 0.35629678 -0.13523194 0.040731408 -0.045049474 0.41580257 -0.03894973 -0.046293743 -0.08041685 0.07699489 0.12346819 -0.15025254 -0.05577967 -0.03536645 -0.0025360666 -0.09439503 -0.35852438 0.17215021 0.16923772 -0.03138949 -0.15323885 -0.054207765 -0.15177673 0.040237542 0.26396608 -0.3705564 0.24245708 0.034116484 -0.17624499 0.16964929 0.18829305 -0.37334928 0.2534713 0.11213469 0.0016284294 -0.112054616 -0.06437079 -0.0041694418 0.07631921 0.18847154 -0.31979194 0.40185398 -0.47201383 0.15439619 0.31629276
11 0.07438008 -0.47839725 -0.13671273 0.115261525 -0.029888911 -0.3617511 0.15726395 0.28200075 0.45383427 0.07203937 0.08793958 0.34874713 0.037585497 -0.23569506 0.3062592 -0.34649107 -0.09875946 -0.4193989 0.0031981221 0.020127188 0.35731038 -0.13020806 0.0658981 -0.0362988 0.39269683 -0.007871272 -0.035598017 -0.029919283 0.080427855 0.10442116 -0.15060201 -0.031255584 -0.052217126 -0.0051902765 -0.08289882 -0.33883289 0.1716544 0.1410448 -0.005143613 -0.1232709 -0.065569915 -0.1565895 0.053528804 0.28580347 -0.3323569 0.23077376 0.03911761 -0.15505645 0.14492702 0.2012852 -0.3592275 0.2243839 0.099580005 0.03955137 -0.14743973 -0.061286468 -0.02229605 0.10618322 0.15352786 -0.28467688 0.3887557 -0.46480015 0.13168691 0.29273802
26 0.027144581 -0.06424169 0.07511299 0.19145575 0.07649786 -0.05645625 0.14964491 -0.41124105 -0.39592886 0.08682463 -0.024346616 -0.103550844 0.07781534 -0.234476 -0.22877666 -0.05284861 0.10743828 -0.10849162 -0.11895141 0.3135825 0.27649236 0.04647228 0.17818557 -0.006237646 -0.28768718 -0.21620223 -0.18351756 0.00033194743 -0.1027241 0.41858998 0.037289456 0.09543161 0.19299914 -0.0025876747 -0.4938276 -0.06759456 0.2948522 0.29891676 0.010522987 -0.29293 -0.14052682 0.2155129 -0.1298575 -0.12785594 -0.14895223 0.36916342 -0.3223595 -0.11369521 -0.33329988 0.04109414 0.16242877 0.39506683 -0.019619098 -0.23340465 -0.098156415 0.05213288 -0.041541502 -0.09022903 -0.24491967 0.1910802 0.13509908 -0.28348908 -0.0011300703 0.2816087
25 0.017774431 -0.0716738 0.0703291 0.19293274 0.060764078 -0.029210873 0.14797077 -0.45789328 -0.41057923 0.09385428 -0.031579144 -0.1342143 0.060828004 -0.20724133 -0.24139506 -0.0404979 0.11696025 -0.105113186 -0.12639643 0.32828388 0.29419345 0.051776193 0.1890109 0.010718052 -0.31602705 -0.23955937 -0.18614885 -0.005979511 -0.135859 0.431959 0.043354675 0.093513034 0.21707052 -0.015308124 -0.5215711 -0.050287135 0.27805403 0.32529226 -0.0055765766 -0.3065245 -0.16026342 0.2577648 -0.15205698 -0.16724285 -0.12604156 0.41157854 -0.3148742 -0.092558905 -0.3400152 0.025740728 0.17537616 0.4252873 -0.017107792 -0.25552335 -0.09847766 0.053129658 -0.047991924 -0.124052785 -0.24510117 0.22894569 0.11589629 -0.26054868 0.013767632 0.28723535
20 -0.05546272 -0.1799235 0.16381529 0.005403947 0.07342262 -0.28540936 0.06942721 0.029883785 -0.14091586 0.08772407 -0.06737797 0.10234561 0.11554077 -0.29976925 -0.045955684 -0.2969779 -0.00050452584 -0.09825464 0.014637903 0.053436846 0.28158185 0.065570146 0.13398059 0.0036156627 -0.005115582 0.10402728 0.066604644 0.27125776 0.14833891 0.1439008 -0.18551365 0.053301264 -0.17676945 0.20153995 -0.16597894 -0.17020759 0.23863068 0.07505412 0.16997422 -0.030289965 -0.10950423 -0.06911215 0.053196922 0.26108944 -0.054120783 0.110102735 -0.104246885 -0.20485274 -0.21258642 0.091630094 -0.048904024 0.05604758 0.117942736 0.11637539 -0.33892712 -0.013722383 -0.11434528 0.092482165 -0.1700652 0.01295313 0.1847355 -0.31877297 -0.12903075 0.11313303
29 -0.041039202 -0.09887708 0.10497812 0.122089714 0.07981543 -0.13339397 0.13428548 -0.21113287 -0.24760501 0.07770932 -0.028911682 0.032329045 0.06469229 -0.27344498 -0.14912023 -0.17261195 0.031450827 -0.100469604 -0.06543185 0.18612465 0.23474236 0.039607447 0.13593486 -0.018614514 -0.14581446 -0.096732005 -0.06888554 0.093148835 0.008769698 0.2809482 -0.04873184 0.090158895 0.014849579 0.09187634 -0.31389496 -0.09545614 0.2841759 0.20891376 0.08247817 -0.15377364 -0.14386484 0.11517715 -0.0057683005 0.04962218 -0.10794936 0.20281872 -0.18535113 -0.18910299 -0.28363043 0.06623406 0.07262943 0.24849992 0.04545486 -0.083998196 -0.18769662 -0.01094683 -0.10179639 -0.020770967 -0.17949082 0.08955804 0.1502087 -0.2793994 -0.09109684 0.18404053
17 0.13483897 -0.6452125 -0.26849458 0.21812035 -0.101825 -0.3834488 0.2644492 0.34682286 0.72107893 0.08328727 0.14504553 0.46636266 0.008526435 -0.19914721 0.42663363 -0.33558983 -0.13535815 -0.5892575 -0.025407042 0.04903393 0.4041701 -0.25924134 0.08880618 -0.07208802 0.57989275 -0.09497538 -0.102061264 -0.22423226 8.932811e-05 0.14184749 -0.10684682 -0.040201444 0.038683757 -0.13570249 -0.07318219 -0.42106134 0.14642698 0.19924568 -0.12892136 -0.20777759 -0.12776703 -0.164525 0.034743242 0.2728907 -0.45990142 0.30450734 0.12373855 -0.15540788 0.30938333 0.27583307 -0.51405114 0.38152194 0.08486749 -0.07548186 -0.010277527 -0.103889674 -0.032213695 0.08486533 0.34903872 -0.42280465 0.5032259 -0.52042073 0.2522371 0.38618115
19 -0.12477042 -0.0771505 0.18184566 0.17518812 0.10759114 -0.038073823 0.24272832 -0.3253135 -0.36434934 0.055722144 -0.10710253 0.03176571 0.009122215 -0.294022 -0.28284067 -0.16406561 0.037052862 -0.022188898 -0.13687232 0.22916667 0.1979493 0.03708963 0.22122642 -0.020305924 -0.21638924 -0.18640456 -0.066138 0.09404589 -0.065269314 0.28541878 -0.022280917 0.15562417 -0.021663401 0.11477879 -0.3116833 -0.008880772 0.3130268 0.27089 0.098625444 -0.09057665 -0.2955996 0.24536075 0.095117584 0.04248872 -0.038551927 0.1250174 -0.07084913 -0.33218125 -0.39850292 0.07634552 0.19787997 0.33293518 0.07755989 -0.17613122 -0.17290322 -0.120623186 -0.27964157 -0.08716533 -0.15831897 0.16800247 0.087944314 -0.19388022 -0.19977456 0.1776788
15 -0.13481607 -0.08689816 0.1679633 0.18636142 0.10591314 -0.036840625 0.2532529 -0.33020523 -0.3417252 0.053267885 -0.08113636 0.0404817 0.014002118 -0.3015701 -0.2647348 -0.17146288 0.02867139 -0.03996326 -0.14572598 0.22323956 0.20653181 0.035082933 0.2160082 -0.026897084 -0.21084423 -0.20515409 -0.0822695 0.068083934 -0.06850442 0.29459345 -0.019074798 0.16449165 -0.0049324883 0.10465583 -0.31575918 -0.018603997 0.32668942 0.2814731 0.08992111 -0.1035178 -0.30440795 0.24996793 0.09258655 0.040061582 -0.06395235 0.14318286 -0.09000467 -0.32809168 -0.38851544 0.07407802 0.18162891 0.35953864 0.0781141 -0.17986676 -0.17242247 -0.13609917 -0.2740071 -0.108403295 -0.15540971 0.16044442 0.114472724 -0.19540349 -0.1922033 0.18148433
22 -0.0007885644 -0.27577558 0.06538437 -0.0024953096 0.049162354 -0.37368938 0.041728627 0.19895954 0.08595183 0.082826704 0.006684372 0.22090703 0.12097402 -0.3114128 0.12095025 -0.36812565 -0.048258483 -0.20553008 0.070721075 0.017819785 0.29924694 0.017907623 0.07808501 -0.022490608 0.16031872 0.14742392 0.067884065 0.21910807 0.21374024 0.11149084 -0.2065276 0.0003107629 -0.20699371 0.19278641 -0.10143824 -0.2669141 0.20907797 0.046415497 0.14983942 -0.029141702 -0.022261808 -0.18906686 0.063342154 0.3431649 -0.15485217 0.115616985 -0.0972029 -0.18691581 -0.061139733 0.12068595 -0.21050231 0.010172667 0.12399726 0.1861327 -0.32589862 -0.0071492163 -0.030683348 0.15105328 -0.077671185 -0.13700998 0.26766762 -0.39070275 -0.056707375 0.1403664
23 -0.087937884 -0.04370455 0.15246414 0.14568436 0.10077825 -0.08901055 0.17600659 -0.26389045 -0.34959632 0.06310113 -0.07823673 0.019269586 0.06214697 -0.3225846 -0.24749254 -0.1746476 0.043626875 -0.037457302 -0.09650163 0.21741274 0.19793645 0.054291885 0.16522855 -0.0226413 -0.1941062 -0.13078944 -0.063808054 0.11643176 -0.014470697 0.29281473 -0.04378323 0.12795566 -0.022820236 0.12012599 -0.32309788 -0.050471496 0.32969102 0.23146361 0.10872861 -0.11927898 -0.2101531 0.16731794 0.05982204 0.0737949 -0.07508447 0.12968233 -0.16062401 -0.2593942 -0.37255713 0.06484186 0.1596843 0.26373532 0.06797597 -0.11264701 -0.19878738 -0.07398085 -0.19033147 -0.047271546 -0.21262603 0.123388305 0.11877841 -0.24280037 -0.15587036 0.17000686
18 -0.0050862473 -0.29289415 0.042876154 0.0064082616 0.045940325 -0.35308355 0.061689314 0.19071832 0.11265169 0.095917545 -0.011538618 0.22708802 0.10914342 -0.29427707 0.1126346 -0.35711887 -0.033682838 -0.22447497 0.03588243 0.029419685 0.29836297 0.005956972 0.09651917 -0.024466138 0.18645674 0.12214942 0.057670712 0.19794889 0.18650745 0.10948064 -0.19157574 0.011194312 -0.16307329 0.16662276 -0.10508559 -0.26291442 0.19892134 0.06087825 0.14553557 -0.043808956 -0.052211374 -0.16038112 0.05711767 0.32535765 -0.17895423 0.11595214 -0.08562213 -0.176044 -0.042581163 0.13363664 -0.20120066 0.038565595 0.11452486 0.17327172 -0.29997027 -0.0017439136 -0.046940554 0.1436889 -0.07139373 -0.13142292 0.26724246 -0.4086661 -0.038818162 0.15933089
13 0.009639575 -0.17259711 0.111740574 -0.02233027 0.06544286 -0.37004617 0.017446272 0.15697384 -0.022930074 0.0962496 0.009519825 0.17527425 0.15780653 -0.37926278 0.0635845 -0.37406382 -0.04456696 -0.16981481 0.06810476 0.023927186 0.27730438 0.0585868 0.019785378 -0.018215861 0.0957628 0.16851568 0.0818283 0.29157412 0.25147858 0.13645482 -0.23139422 0.015193295 -0.22197995 0.22987121 -0.1372717 -0.26439163 0.27622825 0.06130085 0.20010799 -0.034536965 0.012712681 -0.1867923 0.06890515 0.34659308 -0.16175358 0.08875773 -0.16996701 -0.19778553 -0.1527022 0.109918095 -0.1527078 -0.020775313 0.1376626 0.21911451 -0.3663288 0.004807143 -0.025956001 0.13479786 -0.17167558 -0.12777387 0.25750908 -0.40860817 -0.09228236 0.0991443
16 -0.0983484 -0.029556626 0.18263687 0.14705679 0.113765605 -0.09653685 0.18031192 -0.28279054 -0.38662347 0.066906795 -0.079610184 0.017179016 0.06734583 -0.3294941 -0.25634682 -0.1931199 0.041052137 -0.038028628 -0.10515998 0.20928141 0.19545546 0.07144285 0.17833665 -0.032153722 -0.21588975 -0.12327492 -0.056599118 0.1383268 -0.0011186771 0.29567072 -0.052499745 0.14146091 -0.036386926 0.13034873 -0.32149205 -0.04106111 0.3546507 0.22983341 0.12093185 -0.12659536 -0.21673551 0.17725961 0.07111514 0.07974791 -0.07141955 0.120209694 -0.17448907 -0.27208644 -0.40268525 0.07026235 0.17729443 0.2647391 0.066830024 -0.092834204 -0.20839766 -0.06830315 -0.1914926 -0.04462393 -0.23451105 0.13135049 0.120063916 -0.25097436 -0.1839463 0.1491992
10 -0.08080988 -0.12045054 0.14910929 0.10545789 0.09910589 -0.14467163 0.15419191 -0.14262976 -0.23178087 0.05725229 -0.052102588 0.07822654 0.052635204 -0.27722037 -0.15032898 -0.22105557 0.018931478 -0.050800573 -0.05686628 0.14779675 0.22704525 0.04453273 0.16818601 -0.011868301 -0.115808055 -0.05983413 -0.013622581 0.14687777 0.042780615 0.22071612 -0.08879163 0.09232295 -0.09006234 0.16733676 -0.24274573 -0.087883785 0.2773297 0.16088356 0.11221259 -0.067071415 -0.1851482 0.093747415 0.079396985 0.13700584 -0.055015612 0.12617825 -0.09726853 -0.26620632 -0.2797363 0.06850967 0.06846479 0.19637445 0.10834867 -0.03501849 -0.24382308 -0.0599351 -0.16291785 -0.012538785 -0.16135073 0.08724986 0.13248815 -0.24223073 -0.16988191 0.13565809
21 -0.08114642 -0.10860842 0.1192418 0.16991085 0.07588987 -0.08769922 0.21840748 -0.2410265 -0.2503256 0.06881727 -0.05977879 0.06290204 0.029124126 -0.29096133 -0.18956825 -0.17963837 0.021463698 -0.08021744 -0.1093733 0.2017407 0.21977636 0.010003185 0.18119274 -0.029505268 -0.12907639 -0.16689979 -0.065436676 0.061296023 -0.042577174 0.27464783 -0.027647784 0.1187538 -0.010407578 0.09026852 -0.29098013 -0.062122446 0.2999331 0.2535164 0.07330099 -0.11735897 -0.24649763 0.19322474 0.0667468 0.057269733 -0.10099712 0.15250571 -0.084625974 -0.28431892 -0.30516174 0.08901539 0.11956116 0.3218045 0.084141314 -0.15028213 -0.15903197 -0.093020655 -0.20898591 -0.073007 -0.1267981 0.09766983 0.13687532 -0.23368347 -0.13751723 0.1901117
27 -0.059794273 -0.13526963 0.14588931 0.20865628 0.0834105 -0.031205297 0.2767781 -0.34404922 -0.37122127 0.074365355 -0.12937053 -0.029012913 0.016903432 -0.2520519 -0.27467617 -0.13371693 0.071288005 -0.060489316 -0.16802551 0.23942304 0.28144616 0.013245797 0.26843622 0.004154429 -0.2152961 -0.24281529 -0.1083956 0.060096093 -0.14281224 0.33276734 -0.008736458 0.13514544 0.031143498 0.032361623 -0.35871318 -0.01753207 0.29845273 0.28958753 0.035383 -0.16586027 -0.32799357 0.2874354 0.038449675 -0.004369699 -0.024436649 0.23659381 -0.058683813 -0.297809 -0.38228115 0.10425643 0.2090875 0.42290843 0.06616545 -0.22598492 -0.15138447 -0.10922304 -0.2770006 -0.106243394 -0.1027445 0.19544028 0.11055679 -0.19234844 -0.14439361 0.21539561
12 0.053641446 -0.41989106 -0.08738266 0.07369943 -0.016803736 -0.3437353 0.11898191 0.21131064 0.31480166 0.087321825 0.060849722 0.28697658 0.056760244 -0.23016909 0.23403807 -0.31569812 -0.0734915 -0.34539476 0.016679585 0.029205257 0.34050557 -0.073201016 0.08211371 -0.035381533 0.29155043 0.021541562 -0.0044851056 0.030319633 0.10095866 0.115972474 -0.1508525 -0.021973591 -0.0717187 0.042598445 -0.10845688 -0.29773661 0.15979834 0.12106809 0.027984884 -0.11801871 -0.055569347 -0.1484667 0.030795079 0.26231432 -0.27518377 0.22568765 -0.014402599 -0.14332412 0.08450423 0.16217034 -0.30477878 0.17840485 0.09126497 0.05620581 -0.18935128 -0.030163238 -0.012728028 0.107039146 0.07833317 -0.21084902 0.34379363 -0.4261943 0.08183805 0.2593548
