4 10
good -0.746239 -0.195060 0.617392 -0.148532 -0.042949 -0.628071 -0.309357 -0.245480 0.567808 -0.356593 
the -0.745602 -0.194813 0.618088 -0.148766 -0.044276 -0.644661 -0.144033 0.655878 -0.294563 -0.216156 
bad 0.746123 0.194229 -0.618216 0.146856 0.042636 -0.180072 -0.841834 0.092426 -0.496780 0.059645 
of 0.745324 0.194534 -0.618759 0.147658 0.044532 -0.105096 -0.181212 -0.164095 -0.080785 -0.960554 
