4 10
good -0.243877 -0.194034 -0.307962 -0.797496 0.414769 0.598925 0.738481 -0.243324 0.093818 -0.167113 
the -0.244938 -0.193836 -0.308375 -0.796488 0.415866 0.689616 -0.331363 -0.343565 0.268125 0.474027 
bad 0.245362 0.193459 0.306703 0.797427 -0.415228 0.429086 -0.563902 -0.395423 0.244083 -0.531002 
of 0.245184 0.193318 0.308838 0.796849 -0.414927 0.369139 0.288766 0.303578 0.820696 -0.121029 
