4 10
good -0.172447 -0.137203 -0.217762 -0.563915 0.293286 0.423504 0.522185 -0.172056 0.066339 -0.118167 
the -0.173197 -0.137063 -0.218054 -0.563202 0.294062 0.487632 -0.234309 -0.242937 0.189593 0.335188 
bad 0.173497 0.136796 0.216872 0.563866 -0.293611 0.303410 -0.398739 -0.279606 0.172593 -0.375475 
of 0.173371 0.136696 0.218381 0.563457 -0.293398 0.261021 0.204188 0.214662 0.580320 -0.085580 
