4 10
good -0.527671 -0.137928 0.436562 -0.105028 -0.030370 -0.444113 -0.218748 -0.173581 0.401501 -0.252149 
the -0.527220 -0.137754 0.437054 -0.105193 -0.031308 -0.455844 -0.101847 0.463776 -0.208288 -0.152845 
bad 0.527589 0.137341 -0.437145 0.103843 0.030148 -0.127330 -0.595266 0.065355 -0.351276 0.042175 
of 0.527024 0.137556 -0.437529 0.104410 0.031489 -0.074314 -0.128136 -0.116033 -0.057124 -0.679214 
